<?xml version="1.0"?>
<opencv_storage>
<cascade>
  <stageType>BOOST</stageType>
  <featureType>HAAR</featureType>
  <height>50</height>
  <width>50</width>
  <stageParams>
    <boostType>GAB</boostType>
    <minHitRate>9.4999998807907104e-01</minHitRate>
    <maxFalseAlarm>5.0000000000000000e-01</maxFalseAlarm>
    <weightTrimRate>9.4999999999999996e-01</weightTrimRate>
    <maxDepth>1</maxDepth>
    <maxWeakCount>100</maxWeakCount></stageParams>
  <featureParams>
    <maxCatCount>0</maxCatCount>
    <featSize>1</featSize>
    <mode>ALL</mode></featureParams>
  <stageNum>16</stageNum>
  <stages>
    <!-- stage 0 -->
    <_>
      <maxWeakCount>2</maxWeakCount>
      <stageThreshold>-3.4912833571434021e-01</stageThreshold>
      <weakClassifiers>
        <_>
          <internalNodes>
            0 -1 8 -1.8095478415489197e-02</internalNodes>
          <leafValues>
            5.8241760730743408e-01 -8.9344263076782227e-01</leafValues></_>
        <_>
          <internalNodes>
            0 -1 9 3.2358795404434204e-02</internalNodes>
          <leafValues>
            -9.0821146965026855e-01 5.4431426525115967e-01</leafValues></_></weakClassifiers></_>
    <!-- stage 1 -->
    <_>
      <maxWeakCount>1</maxWeakCount>
      <stageThreshold>2.9600000381469727e-01</stageThreshold>
      <weakClassifiers>
        <_>
          <internalNodes>
            0 -1 0 -5.0509221851825714e-02</internalNodes>
          <leafValues>
            2.9600000381469727e-01 -9.6190476417541504e-01</leafValues></_></weakClassifiers></_>
    <!-- stage 2 -->
    <_>
      <maxWeakCount>2</maxWeakCount>
      <stageThreshold>-6.4056354761123657e-01</stageThreshold>
      <weakClassifiers>
        <_>
          <internalNodes>
            0 -1 19 7.1439169347286224e-02</internalNodes>
          <leafValues>
            -8.8444441556930542e-01 3.0909091234207153e-01</leafValues></_>
        <_>
          <internalNodes>
            0 -1 17 5.9728045016527176e-04</internalNodes>
          <leafValues>
            -9.6751761436462402e-01 2.4388088285923004e-01</leafValues></_></weakClassifiers></_>
    <!-- stage 3 -->
    <_>
      <maxWeakCount>2</maxWeakCount>
      <stageThreshold>-6.6051369905471802e-01</stageThreshold>
      <weakClassifiers>
        <_>
          <internalNodes>
            0 -1 21 4.3660521507263184e-02</internalNodes>
          <leafValues>
            -9.4202899932861328e-01 2.3437500000000000e-01</leafValues></_>
        <_>
          <internalNodes>
            0 -1 3 -9.1257388703525066e-05</internalNodes>
          <leafValues>
            -8.9488869905471802e-01 3.2192891836166382e-01</leafValues></_></weakClassifiers></_>
    <!-- stage 4 -->
    <_>
      <maxWeakCount>2</maxWeakCount>
      <stageThreshold>-5.2235871553421021e-01</stageThreshold>
      <weakClassifiers>
        <_>
          <internalNodes>
            0 -1 2 -3.0966788530349731e-02</internalNodes>
          <leafValues>
            5.0000000000000000e-01 -8.2470118999481201e-01</leafValues></_>
        <_>
          <internalNodes>
            0 -1 22 3.9126002229750156e-04</internalNodes>
          <leafValues>
            3.0234244465827942e-01 -9.8630642890930176e-01</leafValues></_></weakClassifiers></_>
    <!-- stage 5 -->
    <_>
      <maxWeakCount>2</maxWeakCount>
      <stageThreshold>-4.9012446403503418e-01</stageThreshold>
      <weakClassifiers>
        <_>
          <internalNodes>
            0 -1 12 -7.1462281048297882e-03</internalNodes>
          <leafValues>
            5.5844157934188843e-01 -8.0620157718658447e-01</leafValues></_>
        <_>
          <internalNodes>
            0 -1 16 -2.0235884585417807e-04</internalNodes>
          <leafValues>
            -9.0336668491363525e-01 3.1607708334922791e-01</leafValues></_></weakClassifiers></_>
    <!-- stage 6 -->
    <_>
      <maxWeakCount>2</maxWeakCount>
      <stageThreshold>-5.9863430261611938e-01</stageThreshold>
      <weakClassifiers>
        <_>
          <internalNodes>
            0 -1 20 4.6282722614705563e-03</internalNodes>
          <leafValues>
            -9.4871795177459717e-01 1.4285714924335480e-01</leafValues></_>
        <_>
          <internalNodes>
            0 -1 11 1.9760398194193840e-02</internalNodes>
          <leafValues>
            -7.4149143695831299e-01 6.3068276643753052e-01</leafValues></_></weakClassifiers></_>
    <!-- stage 7 -->
    <_>
      <maxWeakCount>3</maxWeakCount>
      <stageThreshold>-5.1850521564483643e-01</stageThreshold>
      <weakClassifiers>
        <_>
          <internalNodes>
            0 -1 6 1.0135137289762497e-01</internalNodes>
          <leafValues>
            -6.7114096879959106e-01 9.4594591856002808e-01</leafValues></_>
        <_>
          <internalNodes>
            0 -1 26 -2.3227956146001816e-02</internalNodes>
          <leafValues>
            9.5873087644577026e-01 -5.5171829462051392e-01</leafValues></_>
        <_>
          <internalNodes>
            0 -1 30 -1.1825137771666050e-02</internalNodes>
          <leafValues>
            7.0435398817062378e-01 -6.0837519168853760e-01</leafValues></_></weakClassifiers></_>
    <!-- stage 8 -->
    <_>
      <maxWeakCount>2</maxWeakCount>
      <stageThreshold>-4.4987878203392029e-01</stageThreshold>
      <weakClassifiers>
        <_>
          <internalNodes>
            0 -1 27 6.2552061863243580e-03</internalNodes>
          <leafValues>
            -7.5849056243896484e-01 5.1428574323654175e-01</leafValues></_>
        <_>
          <internalNodes>
            0 -1 29 -2.3353451979346573e-04</internalNodes>
          <leafValues>
            -9.8603564500808716e-01 3.0861178040504456e-01</leafValues></_></weakClassifiers></_>
    <!-- stage 9 -->
    <_>
      <maxWeakCount>2</maxWeakCount>
      <stageThreshold>-3.8858217000961304e-01</stageThreshold>
      <weakClassifiers>
        <_>
          <internalNodes>
            0 -1 28 5.9209475293755531e-03</internalNodes>
          <leafValues>
            -7.5645756721496582e-01 6.2500000000000000e-01</leafValues></_>
        <_>
          <internalNodes>
            0 -1 10 1.3720827701035887e-04</internalNodes>
          <leafValues>
            3.6787539720535278e-01 -9.2069053649902344e-01</leafValues></_></weakClassifiers></_>
    <!-- stage 10 -->
    <_>
      <maxWeakCount>2</maxWeakCount>
      <stageThreshold>-4.2841672897338867e-01</stageThreshold>
      <weakClassifiers>
        <_>
          <internalNodes>
            0 -1 1 -7.0038260892033577e-03</internalNodes>
          <leafValues>
            4.5454546809196472e-01 -8.2995951175689697e-01</leafValues></_>
        <_>
          <internalNodes>
            0 -1 14 1.0437418241053820e-03</internalNodes>
          <leafValues>
            4.0154278278350830e-01 -7.9297155141830444e-01</leafValues></_></weakClassifiers></_>
    <!-- stage 11 -->
    <_>
      <maxWeakCount>2</maxWeakCount>
      <stageThreshold>-4.7122129797935486e-01</stageThreshold>
      <weakClassifiers>
        <_>
          <internalNodes>
            0 -1 7 -7.7619864605367184e-03</internalNodes>
          <leafValues>
            3.8271605968475342e-01 -7.7165353298187256e-01</leafValues></_>
        <_>
          <internalNodes>
            0 -1 25 -1.6634523490210995e-05</internalNodes>
          <leafValues>
            3.7396690249443054e-01 -8.5393732786178589e-01</leafValues></_></weakClassifiers></_>
    <!-- stage 12 -->
    <_>
      <maxWeakCount>2</maxWeakCount>
      <stageThreshold>-3.4058725833892822e-01</stageThreshold>
      <weakClassifiers>
        <_>
          <internalNodes>
            0 -1 13 2.1831491030752659e-03</internalNodes>
          <leafValues>
            -7.1428573131561279e-01 8.3333331346511841e-01</leafValues></_>
        <_>
          <internalNodes>
            0 -1 18 -4.7855013690423220e-05</internalNodes>
          <leafValues>
            -9.7930335998535156e-01 3.7369844317436218e-01</leafValues></_></weakClassifiers></_>
    <!-- stage 13 -->
    <_>
      <maxWeakCount>2</maxWeakCount>
      <stageThreshold>-5.3466641902923584e-01</stageThreshold>
      <weakClassifiers>
        <_>
          <internalNodes>
            0 -1 24 5.4035116918385029e-03</internalNodes>
          <leafValues>
            -8.5714286565780640e-01 2.4324324727058411e-01</leafValues></_>
        <_>
          <internalNodes>
            0 -1 31 -1.6201491234824061e-04</internalNodes>
          <leafValues>
            -9.3690752983093262e-01 3.2247641682624817e-01</leafValues></_></weakClassifiers></_>
    <!-- stage 14 -->
    <_>
      <maxWeakCount>2</maxWeakCount>
      <stageThreshold>-3.8718894124031067e-01</stageThreshold>
      <weakClassifiers>
        <_>
          <internalNodes>
            0 -1 23 -1.1256348341703415e-02</internalNodes>
          <leafValues>
            5.6756758689880371e-01 -7.9310345649719238e-01</leafValues></_>
        <_>
          <internalNodes>
            0 -1 5 -1.5287132700905204e-03</internalNodes>
          <leafValues>
            4.0591451525688171e-01 -9.4274598360061646e-01</leafValues></_></weakClassifiers></_>
    <!-- stage 15 -->
    <_>
      <maxWeakCount>2</maxWeakCount>
      <stageThreshold>-4.4308125972747803e-01</stageThreshold>
      <weakClassifiers>
        <_>
          <internalNodes>
            0 -1 15 8.6860302835702896e-03</internalNodes>
          <leafValues>
            -8.9029538631439209e-01 4.6938776969909668e-01</leafValues></_>
        <_>
          <internalNodes>
            0 -1 4 -2.3292090743780136e-02</internalNodes>
          <leafValues>
            4.9492284655570984e-01 -9.1246902942657471e-01</leafValues></_></weakClassifiers></_></stages>
  <features>
    <_>
      <rects>
        <_>
          0 5 16 39 -1.</_>
        <_>
          8 5 8 39 2.</_></rects>
      <tilted>0</tilted></_>
    <_>
      <rects>
        <_>
          0 10 12 28 -1.</_>
        <_>
          3 10 6 28 2.</_></rects>
      <tilted>0</tilted></_>
    <_>
      <rects>
        <_>
          3 42 44 6 -1.</_>
        <_>
          14 42 22 6 2.</_></rects>
      <tilted>0</tilted></_>
    <_>
      <rects>
        <_>
          4 39 9 2 -1.</_>
        <_>
          4 39 9 1 2.</_></rects>
      <tilted>1</tilted></_>
    <_>
      <rects>
        <_>
          6 0 27 14 -1.</_>
        <_>
          6 7 27 7 2.</_></rects>
      <tilted>0</tilted></_>
    <_>
      <rects>
        <_>
          6 31 44 15 -1.</_>
        <_>
          6 36 44 5 3.</_></rects>
      <tilted>0</tilted></_>
    <_>
      <rects>
        <_>
          7 10 34 24 -1.</_>
        <_>
          7 10 17 12 2.</_>
        <_>
          24 22 17 12 2.</_></rects>
      <tilted>0</tilted></_>
    <_>
      <rects>
        <_>
          8 29 12 8 -1.</_>
        <_>
          6 31 12 4 2.</_></rects>
      <tilted>1</tilted></_>
    <_>
      <rects>
        <_>
          9 0 29 8 -1.</_>
        <_>
          9 4 29 4 2.</_></rects>
      <tilted>0</tilted></_>
    <_>
      <rects>
        <_>
          9 36 36 14 -1.</_>
        <_>
          9 43 36 7 2.</_></rects>
      <tilted>0</tilted></_>
    <_>
      <rects>
        <_>
          11 0 2 10 -1.</_>
        <_>
          11 0 1 10 2.</_></rects>
      <tilted>1</tilted></_>
    <_>
      <rects>
        <_>
          12 42 26 8 -1.</_>
        <_>
          12 46 26 4 2.</_></rects>
      <tilted>0</tilted></_>
    <_>
      <rects>
        <_>
          15 0 21 4 -1.</_>
        <_>
          15 2 21 2 2.</_></rects>
      <tilted>0</tilted></_>
    <_>
      <rects>
        <_>
          20 48 13 2 -1.</_>
        <_>
          20 49 13 1 2.</_></rects>
      <tilted>0</tilted></_>
    <_>
      <rects>
        <_>
          21 28 2 18 -1.</_>
        <_>
          21 37 2 9 2.</_></rects>
      <tilted>0</tilted></_>
    <_>
      <rects>
        <_>
          26 25 20 24 -1.</_>
        <_>
          26 25 10 12 2.</_>
        <_>
          36 37 10 12 2.</_></rects>
      <tilted>0</tilted></_>
    <_>
      <rects>
        <_>
          29 1 12 2 -1.</_>
        <_>
          32 1 6 2 2.</_></rects>
      <tilted>0</tilted></_>
    <_>
      <rects>
        <_>
          32 0 18 9 -1.</_>
        <_>
          38 3 6 3 9.</_></rects>
      <tilted>0</tilted></_>
    <_>
      <rects>
        <_>
          33 1 9 2 -1.</_>
        <_>
          36 1 3 2 3.</_></rects>
      <tilted>0</tilted></_>
    <_>
      <rects>
        <_>
          34 3 16 43 -1.</_>
        <_>
          42 3 8 43 2.</_></rects>
      <tilted>0</tilted></_>
    <_>
      <rects>
        <_>
          36 1 14 14 -1.</_>
        <_>
          43 1 7 14 2.</_></rects>
      <tilted>0</tilted></_>
    <_>
      <rects>
        <_>
          36 5 14 42 -1.</_>
        <_>
          43 5 7 42 2.</_></rects>
      <tilted>0</tilted></_>
    <_>
      <rects>
        <_>
          42 0 6 3 -1.</_>
        <_>
          44 2 2 3 3.</_></rects>
      <tilted>1</tilted></_>
    <_>
      <rects>
        <_>
          42 0 2 48 -1.</_>
        <_>
          42 12 2 24 2.</_></rects>
      <tilted>0</tilted></_>
    <_>
      <rects>
        <_>
          42 6 8 16 -1.</_>
        <_>
          46 6 4 16 2.</_></rects>
      <tilted>0</tilted></_>
    <_>
      <rects>
        <_>
          43 42 5 8 -1.</_>
        <_>
          43 46 5 4 2.</_></rects>
      <tilted>0</tilted></_>
    <_>
      <rects>
        <_>
          44 32 6 12 -1.</_>
        <_>
          44 32 3 12 2.</_></rects>
      <tilted>1</tilted></_>
    <_>
      <rects>
        <_>
          46 12 4 25 -1.</_>
        <_>
          48 12 2 25 2.</_></rects>
      <tilted>0</tilted></_>
    <_>
      <rects>
        <_>
          46 16 4 34 -1.</_>
        <_>
          48 16 2 34 2.</_></rects>
      <tilted>0</tilted></_>
    <_>
      <rects>
        <_>
          46 40 2 6 -1.</_>
        <_>
          46 40 1 6 2.</_></rects>
      <tilted>1</tilted></_>
    <_>
      <rects>
        <_>
          49 5 1 44 -1.</_>
        <_>
          38 16 1 22 2.</_></rects>
      <tilted>1</tilted></_>
    <_>
      <rects>
        <_>
          49 35 1 8 -1.</_>
        <_>
          49 35 1 4 2.</_></rects>
      <tilted>1</tilted></_></features></cascade>
</opencv_storage>
