<?xml version="1.0"?>
<opencv_storage>
<cascade>
  <stageType>BOOST</stageType>
  <featureType>LBP</featureType>
  <height>50</height>
  <width>50</width>
  <stageParams>
    <boostType>GAB</boostType>
    <minHitRate>9.4999998807907104e-01</minHitRate>
    <maxFalseAlarm>5.0000000000000000e-01</maxFalseAlarm>
    <weightTrimRate>9.4999999999999996e-01</weightTrimRate>
    <maxDepth>1</maxDepth>
    <maxWeakCount>100</maxWeakCount></stageParams>
  <featureParams>
    <maxCatCount>256</maxCatCount>
    <featSize>1</featSize></featureParams>
  <stageNum>19</stageNum>
  <stages>
    <!-- stage 0 -->
    <_>
      <maxWeakCount>2</maxWeakCount>
      <stageThreshold>-1.3519345223903656e-01</stageThreshold>
      <weakClassifiers>
        <_>
          <internalNodes>
            0 -1 19 -225971233 -646856608 16843269 -587137023
            -2147442470 -2111651678 -2013265777 -544526085</internalNodes>
          <leafValues>
            -9.3574297428131104e-01 8.0219781398773193e-01</leafValues></_>
        <_>
          <internalNodes>
            0 -1 28 -1849667113 -2112880624 -1879047789 -885980727
            8444634 940183937 134274239 -276070373</internalNodes>
          <leafValues>
            -9.2843538522720337e-01 8.0054950714111328e-01</leafValues></_></weakClassifiers></_>
    <!-- stage 1 -->
    <_>
      <maxWeakCount>1</maxWeakCount>
      <stageThreshold>6.4150941371917725e-01</stageThreshold>
      <weakClassifiers>
        <_>
          <internalNodes>
            0 -1 16 -1042288225 -1000996831 -805302247 -912932863
            -1870659375 -796194431 -134150021 -289419625</internalNodes>
          <leafValues>
            -9.7435897588729858e-01 6.4150941371917725e-01</leafValues></_></weakClassifiers></_>
    <!-- stage 2 -->
    <_>
      <maxWeakCount>2</maxWeakCount>
      <stageThreshold>-2.6656195521354675e-01</stageThreshold>
      <weakClassifiers>
        <_>
          <internalNodes>
            0 -1 9 869389791 1502728464 43025191 -83409535 -1878490993
            -754794204 -536698706 2106808483</internalNodes>
          <leafValues>
            -9.4915252923965454e-01 6.1538463830947876e-01</leafValues></_>
        <_>
          <internalNodes>
            0 -1 32 -611625537 143478921 805437449 -1838661623
            2030471326 -1342078975 -2147245041 -924063329</internalNodes>
          <leafValues>
            -8.8194656372070313e-01 8.1552582979202271e-01</leafValues></_></weakClassifiers></_>
    <!-- stage 3 -->
    <_>
      <maxWeakCount>2</maxWeakCount>
      <stageThreshold>-1.8959118425846100e-01</stageThreshold>
      <weakClassifiers>
        <_>
          <internalNodes>
            0 -1 10 -250088229 -618626988 17863635 -584511484
            -1879014934 -1014921182 -2147460977 -607391663</internalNodes>
          <leafValues>
            -9.0438246726989746e-01 7.5280898809432983e-01</leafValues></_>
        <_>
          <internalNodes>
            0 -1 13 -615801153 -1726805229 252249 1372181079 16980373
            1392509056 27332795 -1288708181</internalNodes>
          <leafValues>
            -9.4240015745162964e-01 7.5260746479034424e-01</leafValues></_></weakClassifiers></_>
    <!-- stage 4 -->
    <_>
      <maxWeakCount>2</maxWeakCount>
      <stageThreshold>-1.9773907959461212e-01</stageThreshold>
      <weakClassifiers>
        <_>
          <internalNodes>
            0 -1 6 -770316257 -640610287 956317787 -721219517
            -2147467183 -1065353168 -2147450599 -116668229</internalNodes>
          <leafValues>
            -9.1902834177017212e-01 7.2043013572692871e-01</leafValues></_>
        <_>
          <internalNodes>
            0 -1 20 -36505009 1359155223 -1862085299 -779726844
            -1654158195 -641707904 -1576877826 -1109736273</internalNodes>
          <leafValues>
            -9.1651028394699097e-01 7.2128927707672119e-01</leafValues></_></weakClassifiers></_>
    <!-- stage 5 -->
    <_>
      <maxWeakCount>2</maxWeakCount>
      <stageThreshold>-1.8254290521144867e-01</stageThreshold>
      <weakClassifiers>
        <_>
          <internalNodes>
            0 -1 21 -551968899 40076419 538214817 -1594686957
            -2002534197 -2138897790 -358430715 -740967539</internalNodes>
          <leafValues>
            -9.0438246726989746e-01 7.5280898809432983e-01</leafValues></_>
        <_>
          <internalNodes>
            0 -1 34 22671775 153731 1073792844 1164182277 -746470778
            1090551816 -1517698213 -1998867473</internalNodes>
          <leafValues>
            -9.3535190820693970e-01 7.9153555631637573e-01</leafValues></_></weakClassifiers></_>
    <!-- stage 6 -->
    <_>
      <maxWeakCount>2</maxWeakCount>
      <stageThreshold>-2.5246542692184448e-01</stageThreshold>
      <weakClassifiers>
        <_>
          <internalNodes>
            0 -1 7 -200194337 -582909807 1107366289 -754860027
            -385794015 -1442807648 -930568166 -880047926</internalNodes>
          <leafValues>
            -9.0322577953338623e-01 6.9565218687057495e-01</leafValues></_>
        <_>
          <internalNodes>
            0 -1 18 -854536073 856807505 -884883243 -971632345 604025399
            -1476178816 -1466949308 -1141662745</internalNodes>
          <leafValues>
            -9.4811761379241943e-01 7.0475846529006958e-01</leafValues></_></weakClassifiers></_>
    <!-- stage 7 -->
    <_>
      <maxWeakCount>2</maxWeakCount>
      <stageThreshold>-2.9723465442657471e-01</stageThreshold>
      <weakClassifiers>
        <_>
          <internalNodes>
            0 -1 5 -620244773 -180027326 119187 -788299375 1744855298
            1795391492 50956811 -33046525</internalNodes>
          <leafValues>
            -9.4915252923965454e-01 6.1538463830947876e-01</leafValues></_>
        <_>
          <internalNodes>
            0 -1 8 -922233637 -116317150 -2147483627 -787479977 148179
            -1055981567 1476450993 -1153179135</internalNodes>
          <leafValues>
            -9.1261929273605347e-01 7.5515347719192505e-01</leafValues></_></weakClassifiers></_>
    <!-- stage 8 -->
    <_>
      <maxWeakCount>2</maxWeakCount>
      <stageThreshold>-1.8041385710239410e-01</stageThreshold>
      <weakClassifiers>
        <_>
          <internalNodes>
            0 -1 17 -787352613 1225326865 268503197 2063630732 268486794
            -1961883000 -2139094933 -116815468</internalNodes>
          <leafValues>
            -8.9641433954238892e-01 7.3033708333969116e-01</leafValues></_>
        <_>
          <internalNodes>
            0 -1 0 -715393933 -1067778030 1107361801 -989601727
            -2117844213 -1060667264 -1873795197 -338399677</internalNodes>
          <leafValues>
            -9.1075092554092407e-01 7.6272165775299072e-01</leafValues></_></weakClassifiers></_>
    <!-- stage 9 -->
    <_>
      <maxWeakCount>2</maxWeakCount>
      <stageThreshold>-3.3346855640411377e-01</stageThreshold>
      <weakClassifiers>
        <_>
          <internalNodes>
            0 -1 29 -1039535393 -766246912 -2147482613 -750759871
            -2146785829 -1282342390 -2146922274 -527678846</internalNodes>
          <leafValues>
            -9.4871795177459717e-01 5.8490568399429321e-01</leafValues></_>
        <_>
          <internalNodes>
            0 -1 33 -1073380645 -1825570271 1258356763 -778304511
            -1476359524 -2013265920 -528379736 -20044150</internalNodes>
          <leafValues>
            -9.1837424039840698e-01 7.0459491014480591e-01</leafValues></_></weakClassifiers></_>
    <!-- stage 10 -->
    <_>
      <maxWeakCount>2</maxWeakCount>
      <stageThreshold>-3.3446234464645386e-01</stageThreshold>
      <weakClassifiers>
        <_>
          <internalNodes>
            0 -1 22 -1907238625 318936452 -2147450431 -40566767
            -1601600549 671453208 -863768564 -91364698</internalNodes>
          <leafValues>
            -9.3191486597061157e-01 5.6190478801727295e-01</leafValues></_>
        <_>
          <internalNodes>
            0 -1 26 -1064217133 1593996294 33951759 1163313173
            -800767099 -1362412597 -2122202998 -95827903</internalNodes>
          <leafValues>
            -8.9636713266372681e-01 7.1066087484359741e-01</leafValues></_></weakClassifiers></_>
    <!-- stage 11 -->
    <_>
      <maxWeakCount>2</maxWeakCount>
      <stageThreshold>-2.2482773661613464e-01</stageThreshold>
      <weakClassifiers>
        <_>
          <internalNodes>
            0 -1 31 -245771777 1292046594 134414715 473174024 411050664
            -2013233024 -1879007074 -257171301</internalNodes>
          <leafValues>
            -8.9558231830596924e-01 6.9230771064758301e-01</leafValues></_>
        <_>
          <internalNodes>
            0 -1 2 -754192365 4391874 134266891 -460258986 -1073495838
            -528449471 -1056812882 -75242683</internalNodes>
          <leafValues>
            -9.1713541746139526e-01 7.6802760362625122e-01</leafValues></_></weakClassifiers></_>
    <!-- stage 12 -->
    <_>
      <maxWeakCount>2</maxWeakCount>
      <stageThreshold>-2.2831185162067413e-01</stageThreshold>
      <weakClassifiers>
        <_>
          <internalNodes>
            0 -1 12 -1761508997 -58359790 -788348687 -951517044
            -2113162869 -939425790 159793399 -87190895</internalNodes>
          <leafValues>
            -9.0322577953338623e-01 6.9565218687057495e-01</leafValues></_>
        <_>
          <internalNodes>
            0 -1 24 -988531201 2034237723 268719107 -1681127407
            -1006614069 -1970700275 -1172600694 -1160791930</internalNodes>
          <leafValues>
            -9.2396402359008789e-01 7.2675079107284546e-01</leafValues></_></weakClassifiers></_>
    <!-- stage 13 -->
    <_>
      <maxWeakCount>2</maxWeakCount>
      <stageThreshold>-1.2708386778831482e-01</stageThreshold>
      <weakClassifiers>
        <_>
          <internalNodes>
            0 -1 11 -791944097 -209121021 67111125 -134021103
            -1525802872 -1945501176 -922181445 -1354833237</internalNodes>
          <leafValues>
            -8.6153846979141235e-01 8.0000001192092896e-01</leafValues></_>
        <_>
          <internalNodes>
            0 -1 35 -1860972101 -2142683134 4456523 1262682386 17295
            -2147483520 -1065334133 -1416912437</internalNodes>
          <leafValues>
            -8.9672774076461792e-01 7.3445457220077515e-01</leafValues></_></weakClassifiers></_>
    <!-- stage 14 -->
    <_>
      <maxWeakCount>2</maxWeakCount>
      <stageThreshold>-2.0093439519405365e-01</stageThreshold>
      <weakClassifiers>
        <_>
          <internalNodes>
            0 -1 3 856575 -805305215 71319825 -1809410688 144343439
            -905903823 168402995 -588877</internalNodes>
          <leafValues>
            -8.6666667461395264e-01 7.1764707565307617e-01</leafValues></_>
        <_>
          <internalNodes>
            0 -1 4 1517438687 -636927663 1107460434 -1039464353
            -2122120568 131137 33616794 -611597815</internalNodes>
          <leafValues>
            -9.1858148574829102e-01 7.6083409786224365e-01</leafValues></_></weakClassifiers></_>
    <!-- stage 15 -->
    <_>
      <maxWeakCount>2</maxWeakCount>
      <stageThreshold>-1.7264077067375183e-01</stageThreshold>
      <weakClassifiers>
        <_>
          <internalNodes>
            0 -1 30 -1810630331 -1677688166 -2013261369 -1861152357
            -2012706629 -608059384 -1342123363 -7634799</internalNodes>
          <leafValues>
            -8.5271316766738892e-01 7.3170733451843262e-01</leafValues></_>
        <_>
          <internalNodes>
            0 -1 15 1728858069 1103233538 1208137939 -250883581
            -1383382839 1350932488 -259321421 -1160795889</internalNodes>
          <leafValues>
            -9.0434807538986206e-01 7.6308220624923706e-01</leafValues></_></weakClassifiers></_>
    <!-- stage 16 -->
    <_>
      <maxWeakCount>2</maxWeakCount>
      <stageThreshold>-2.3027925193309784e-01</stageThreshold>
      <weakClassifiers>
        <_>
          <internalNodes>
            0 -1 25 -1324228361 -1069480379 1342248233 -451718896
            687917499 -1316420704 -2113879125 -476667472</internalNodes>
          <leafValues>
            -8.6561262607574463e-01 6.7816090583801270e-01</leafValues></_>
        <_>
          <internalNodes>
            0 -1 27 -703554723 -237940254 8647767 -2146860254 -452933883
            -780107760 -475807407 -22835004</internalNodes>
          <leafValues>
            -9.0844017267227173e-01 7.4462610483169556e-01</leafValues></_></weakClassifiers></_>
    <!-- stage 17 -->
    <_>
      <maxWeakCount>2</maxWeakCount>
      <stageThreshold>-3.1618461012840271e-01</stageThreshold>
      <weakClassifiers>
        <_>
          <internalNodes>
            0 -1 1 285225691 51122176 1073742166 1460142080 -2013265733
            -1451188184 1621103411 -1182035833</internalNodes>
          <leafValues>
            -9.2468619346618652e-01 6.0396039485931396e-01</leafValues></_>
        <_>
          <internalNodes>
            0 -1 36 -498776493 1364722001 1069201 -721205231 1418887482
            -2146827965 -796913608 -622158946</internalNodes>
          <leafValues>
            -9.2014497518539429e-01 7.3396539688110352e-01</leafValues></_></weakClassifiers></_>
    <!-- stage 18 -->
    <_>
      <maxWeakCount>2</maxWeakCount>
      <stageThreshold>2.8337817639112473e-02</stageThreshold>
      <weakClassifiers>
        <_>
          <internalNodes>
            0 -1 23 -1593834985 1073873024 16405 -1056754944 -1876819966
            1140850816 541255680 -1436549110</internalNodes>
          <leafValues>
            -9.0114068984985352e-01 1.</leafValues></_>
        <_>
          <internalNodes>
            0 -1 14 1073775571 1929445392 1048665 83886081 536871200
            -1476395008 134217736 -939521919</internalNodes>
          <leafValues>
            -9.0827572345733643e-01 9.2947852611541748e-01</leafValues></_></weakClassifiers></_></stages>
  <features>
    <_>
      <rect>
        0 1 5 10</rect></_>
    <_>
      <rect>
        0 1 8 2</rect></_>
    <_>
      <rect>
        0 3 3 6</rect></_>
    <_>
      <rect>
        0 8 3 4</rect></_>
    <_>
      <rect>
        0 32 3 6</rect></_>
    <_>
      <rect>
        0 33 7 5</rect></_>
    <_>
      <rect>
        0 37 6 3</rect></_>
    <_>
      <rect>
        0 41 9 3</rect></_>
    <_>
      <rect>
        1 0 6 5</rect></_>
    <_>
      <rect>
        1 3 15 12</rect></_>
    <_>
      <rect>
        2 0 4 5</rect></_>
    <_>
      <rect>
        2 39 3 3</rect></_>
    <_>
      <rect>
        3 2 3 4</rect></_>
    <_>
      <rect>
        4 4 11 15</rect></_>
    <_>
      <rect>
        7 44 7 2</rect></_>
    <_>
      <rect>
        8 4 12 15</rect></_>
    <_>
      <rect>
        8 9 10 11</rect></_>
    <_>
      <rect>
        10 0 4 2</rect></_>
    <_>
      <rect>
        10 7 9 14</rect></_>
    <_>
      <rect>
        11 10 10 10</rect></_>
    <_>
      <rect>
        12 5 8 11</rect></_>
    <_>
      <rect>
        13 10 9 9</rect></_>
    <_>
      <rect>
        13 16 8 8</rect></_>
    <_>
      <rect>
        15 4 10 13</rect></_>
    <_>
      <rect>
        16 14 7 7</rect></_>
    <_>
      <rect>
        17 1 8 7</rect></_>
    <_>
      <rect>
        17 10 6 10</rect></_>
    <_>
      <rect>
        18 5 5 12</rect></_>
    <_>
      <rect>
        28 39 7 3</rect></_>
    <_>
      <rect>
        32 0 3 3</rect></_>
    <_>
      <rect>
        32 41 4 3</rect></_>
    <_>
      <rect>
        35 5 5 4</rect></_>
    <_>
      <rect>
        35 10 5 11</rect></_>
    <_>
      <rect>
        37 0 4 4</rect></_>
    <_>
      <rect>
        38 20 4 7</rect></_>
    <_>
      <rect>
        38 30 4 5</rect></_>
    <_>
      <rect>
        41 2 3 5</rect></_></features></cascade>
</opencv_storage>
